7.58714795 7.60715951 7.51937727 7.53845717 7.49815679 7.53688152 7.47493276 7.46453961 7.40088795 7.62490641 7.47022569 7.40321677 7.47681478 7.50381021 7.44138245 7.43871723 7.55271560 7.45035993 7.41056718 7.46466296 7.53249354 7.56627333 7.37862754 7.49045322 7.43057505 7.67537761 7.54248561 7.46826360 7.71135433 7.47357846 7.41112994 7.63412959 7.55147567 7.49763667 7.49364774 7.42027824 7.37769421 7.52699313 7.62549764 7.54513011 7.33431608 7.45910729 7.51636510 7.42236506 7.47452647 7.44466129 7.52511089 7.50583937 7.46668244 7.55958453 -12.46841150 -12.39988371 -12.34792519 -12.45566023 -12.46803004 -12.41564025 -12.40949868 -12.52179041 -12.41884326 -12.44603781 -12.43972132 -12.45295842 -12.34969749 -12.45226880 -12.45724779 -12.50762798 -12.44031459 -12.41879704 -12.41947668 -12.40865114 -12.43232878 -12.44347754 -12.43294811 -12.41240921 -12.39473663 -12.41993459 -12.43945444 -12.35613268 -12.44239782 -12.40766669 -12.42470189 -12.43431461 -12.43349389 -12.33615285 -12.35684185 -12.41456375 -12.34522018 -12.38355546 -12.48220608 -12.39923876 -12.44376298 -12.40915872 -12.42018963 -12.43309092 -12.45021709 -12.43694492 -12.40256366 -12.39078668 -12.40575293 -12.41949686 4.75768619 5.08317778 4.89137531 4.87181172 5.04571450 4.92883934 5.00544471 4.93805755 4.97997888 4.86724535 5.06026309 5.02306277 5.00384300 4.90879938 4.52531947 4.90527711 4.90304215 4.82953282 4.90138855 4.86215375 5.01069599 4.90012535 4.96811728 4.93190025 5.00575290 4.95030863 4.97048082 4.50154469 4.91539528 4.92228968 5.09590784 4.94031842 4.94481265 4.87578057 4.94235444 4.96349912 4.92525698 4.89236940 5.06995394 4.85014728 4.90242772 4.92327382 4.77603272 5.11135073 4.89161778 4.94923602 5.02077498 4.85001163 4.96380828 4.91809039 
0.79909995 0.72254549 0.74209861 0.65550885 0.63074363 0.70241689 0.69462007 0.68590309 0.72161860 0.72611843 0.66714307 0.72495033 0.73694698 0.72684131 0.74631633 0.71964955 0.70752734 0.68826716 0.67391416 0.69184872 0.60266647 0.74482173 0.77758802 0.68732781 0.70019015 0.66096673 0.74395593 0.74059645 0.64880818 0.75220568 0.63617178 0.68696335 0.77316830 0.72673990 0.67267489 0.74726812 0.76395766 0.73510907 0.72413747 0.80521256 0.69371701 0.59423544 0.73261763 0.67935802 0.84613396 0.46119012 0.75835957 0.78125089 0.73039553 0.75419616 0.14653908 0.12495497 0.08991521 0.09424911 0.11503269 0.07902504 0.11076157 0.15557226 0.09013253 0.09894059 0.11689770 0.11950159 0.12520516 0.06812592 0.06508897 0.14004156 0.10126326 0.10046034 0.07850487 0.09902010 0.10797930 0.15865762 0.10864408 0.14142834 0.10794483 0.09746300 0.11258399 0.07002008 0.09581234 0.06023395 0.08831402 0.11050214 0.17132451 0.06231387 0.10465712 0.10332919 0.09304892 0.10056027 0.11922494 0.16768558 0.10284698 0.12048348 0.11820510 0.07951205 0.09635782 0.08750166 0.11589340 0.05582325 0.09107848 0.10532562 -0.80664445 -1.41452222 -0.72784770 -0.94697993 -0.94857066 -0.77808262 -0.91100569 -0.83851794 -0.71184028 -0.80112385 -0.50338280 -0.87923744 -0.81669941 -0.94542435 -0.78119358 -0.77560417 -0.70187339 -0.84834701 -0.85802323 -0.81729111 -0.75046887 -0.79709833 -0.74423329 -0.83556680 -0.88703093 -0.83768048 -0.71158105 -0.98283731 -0.66286141 -0.83242844 -0.76672118 -0.78152760 -0.87787067 -0.77775950 -0.81582282 -0.82083627 -0.78625068 -0.85891392 -0.78593087 -0.85599126 -0.88073135 -0.83722339 -0.87253010 -0.68259562 -0.75778131 -0.69421134 -0.97216851 -0.58162187 -0.78409649 -0.75546809 