-2.53611011 -2.64951276 -2.45022653 -2.54671029 -2.47032420 -2.72897690 -2.49698545 -2.55577891 -2.48611984 -2.54488195 -2.49550894 -2.51057504 -2.53612601 -2.46166443 -2.41737534 -2.43548220 -2.50266347 -2.56190681 -2.63435137 -2.61670588 -2.58484682 -2.61466623 -2.50053582 -2.48194263 -2.62201868 -2.53502810 -2.60283626 -2.55349845 -2.50343376 -2.40953553 -2.75015513 -2.41359057 -2.58665279 -2.50804057 -2.59438054 -2.60934571 -2.44473464 -2.46501229 -2.50587677 -2.50084170 -2.63107356 -2.57333052 -2.49930768 -2.52007168 -2.54380224 -2.29761966 -2.50091305 -2.58387474 -2.54469822 -2.62039093 -0.25268542 -0.22834930 -0.18890423 -0.32669936 -0.24719257 -0.26760799 -0.16854324 -0.21894958 -0.25716630 -0.27299996 -0.11625321 -0.28227043 -0.23575963 -0.22862424 -0.38920112 -0.26425689 -0.30952012 -0.24249218 -0.28008608 -0.27554051 -0.18187731 -0.21122890 -0.33159961 -0.29899889 -0.39667258 -0.33141292 -0.35487979 -0.23423941 -0.38325055 -0.14424711 -0.32347970 -0.29624591 -0.27202215 -0.34874748 -0.23697859 -0.18555192 -0.29725684 -0.30770564 -0.31874866 -0.22654460 -0.31264042 -0.38551650 -0.25219982 -0.28082343 -0.27646223 -0.34971498 -0.34619760 -0.32862863 -0.34041977 -0.32301865 2.85817183 2.84271268 2.87288233 2.77348375 2.86439025 2.78386905 2.89643883 2.83368004 2.86941705 2.78203257 2.86108608 2.79592061 2.81396156 2.79645976 2.68416511 2.80682004 2.75743337 2.72343527 2.54179024 2.83470322 2.80854786 2.84845762 2.56738814 2.82120666 2.70344725 2.83649831 2.80541712 2.82356678 2.71482802 2.87579546 3.19202548 2.88456963 2.65089891 2.96390720 2.82871613 2.81321024 2.69679759 2.82373197 2.83027644 2.81203074 2.97149538 2.90600362 2.83675397 2.78190928 2.78343393 2.76887436 2.79684375 2.82994042 2.89006075 2.81096800 
0.72525626 0.68490945 0.77190310 0.76886079 0.55035536 0.84417843 0.69252325 0.77469601 0.72398895 0.70389585 0.60132005 0.69347157 0.77054662 0.67087641 0.76626828 0.80363800 0.68235579 0.77400722 0.73586145 0.77339492 0.74732773 0.75925676 0.84197899 0.70391851 0.69282488 0.75240088 0.70966687 0.71750358 0.62699491 0.62961341 0.77531884 0.76387892 0.69646214 0.69738772 0.83160081 0.67192353 0.60895234 0.77824160 0.80152306 0.73422035 0.77928572 0.70413503 0.71978922 0.78857958 0.69544118 0.54849265 0.72060828 0.68050468 0.72119385 0.68848153 -1.23469195 -1.16829417 -1.27993775 -1.17453232 -1.27518826 -1.23944057 -1.20251844 -1.28041439 -1.24869303 -1.24514506 -1.37707237 -1.19027309 -1.01465702 -1.32258586 -1.18505762 -1.26139263 -1.20495755 -1.25057773 -1.24992041 -1.29018245 -1.30449289 -1.26576363 -1.28103647 -1.14030527 -1.10856468 -1.28602145 -1.12597497 -1.29132349 -1.31856466 -1.32357608 -1.35550525 -0.98003563 -1.17881819 -1.34071179 -1.25596665 -1.26431854 -1.23560672 -1.29166993 -1.30500089 -1.49470120 -1.26556730 -1.33419858 -1.26399742 -1.27477552 -1.25769995 -1.23130997 -1.28252383 -1.25484960 -1.25021671 -1.18260787 0.53767375 0.49914393 0.65019025 0.53007293 0.53909974 0.49685105 0.53659360 0.56377691 0.56140253 0.56620592 0.38031003 0.46269493 0.58930915 0.48959075 0.56846900 0.49189016 0.56536981 0.58709674 0.43687370 0.59266105 0.53317065 0.50883559 0.17230819 0.51201881 0.50960734 0.49227161 0.54974864 0.46570016 0.56950996 0.64183507 0.53811241 0.45406549 0.57623997 0.91607288 0.49754862 0.54061767 0.56461358 0.68954375 0.52777085 0.54227584 0.51550773 0.49431214 0.46557456 0.53219716 0.37767609 0.52339642 0.46212864 0.48522644 0.51342105 0.52483922 