-1.73600950 -1.67166841 -1.60660186 -1.57987141 -1.58275968 -1.64027931 -1.69748525 -1.50018341 -1.71961900 -1.50356575 -1.64025438 -1.63762440 -1.53694762 -1.64806589 -1.72769119 -1.60074939 -1.72558034 -1.64599494 -1.66513908 -1.61652230 -1.64336559 -1.55102844 -1.57464722 -1.73145779 -1.65649619 -1.66728710 -1.60445312 -1.67225976 -1.64227428 -1.65545556 -1.68308965 -1.70041739 -1.64066574 -1.67845037 -1.57033645 -1.68876782 -1.65751078 -1.69951649 -1.67441955 -1.62905301 -1.64578908 -1.64308716 -1.64873647 -1.64876486 -1.61218676 -1.67122381 -1.67993652 -1.69445241 -1.65139771 -1.69532386 -3.35591764 -3.20875155 -3.36533862 -3.27653965 -3.28225086 -3.40221762 -3.33071124 -3.32610927 -3.20027527 -3.31694657 -3.44424201 -3.29455399 -3.39983284 -3.25579935 -3.28597481 -3.38883686 -3.34934670 -3.62230335 -3.28542461 -3.30993895 -3.24379578 -3.29235011 -3.05948779 -3.27082415 -3.25800253 -3.29150590 -3.34592180 -3.27491110 -3.17732865 -3.29249060 -3.33558178 -3.29537657 -3.25294744 -3.36000312 -3.28889893 -3.29058069 -3.46891267 -3.37475839 -3.32103819 -3.22218681 -3.29076000 -3.32387155 -3.37562278 -3.35088594 -3.31816715 -3.23867504 -3.42178138 -3.37303842 -3.21322833 -3.31605513 3.40034853 3.43238500 3.35317192 3.40980313 3.38835516 3.36372078 3.36594179 3.47433738 3.39964196 3.39670126 3.30336312 3.43992433 3.39556184 3.39861446 3.42293639 3.41350016 3.31400623 3.37177401 3.40635547 3.39444767 3.44797862 3.41353556 3.38322255 3.39990498 3.36546651 3.42001478 3.36254560 3.39332978 3.40245727 3.45038894 3.38897993 3.37487637 3.49215584 3.37326150 3.36698219 3.41899963 3.34832816 3.44082556 3.39471792 3.45293523 3.38374566 3.43649859 3.38735866 3.40908000 3.45954405 3.45624022 3.44076627 3.39924486 3.37745013 3.41135257 1.56756386 1.50502683 1.56264772 1.53901629 1.47488612 1.46245040 1.40212162 1.73033775 1.60112154 1.53536063 1.61727994 1.55345347 1.54974561 1.47533115 1.57667214 1.52438990 1.63256919 1.55013196 1.57185623 1.55441516 1.56914636 1.53227291 1.60162725 1.85400481 1.52212564 1.58291940 1.58392111 1.48613164 1.35729469 1.89818798 1.51942373 1.60372468 1.43513868 1.58982389 1.53781705 1.58907296 1.45067522 1.52639486 1.68776457 1.60767345 1.50581013 1.55642614 1.62727687 1.52955079 1.54083972 1.47851931 1.50411779 1.42857209 1.54991952 1.59513526 
0.13401314 0.18627982 0.16845002 0.42525921 0.14294482 0.29504360 0.22766285 0.22821625 0.37469767 0.23352475 -0.05602597 0.23075116 0.24397178 0.21245391 0.03314324 0.22000064 0.15054094 0.36272659 0.18415332 0.16895058 0.13671780 0.35315665 0.16342289 0.14762796 0.19623279 0.18048136 0.20643566 0.11252618 0.22461480 0.22730429 0.24045938 0.23195435 0.26649769 0.16255332 0.31308268 0.35990583 0.18011551 0.28544564 0.22620676 0.23363920 0.22653700 0.26105096 0.22486431 0.21498064 0.19720435 0.22977632 0.18082709 0.06557418 0.24999851 0.14376370 0.02695052 0.28155534 0.18759610 0.18095031 0.22826117 0.04343803 0.13236429 0.12845563 0.16213216 0.07229995 0.05213679 0.16405155 0.12422593 0.20049202 0.16231150 0.15968772 0.13497608 0.15698057 0.20808581 0.16706215 0.26825114 0.15737238 0.15324640 0.18937260 0.14111159 0.08935868 0.15365706 0.06934507 0.08843979 0.17295316 0.13780381 0.19866949 0.24655824 0.18734492 0.17675238 0.16211652 0.18205267 0.19115339 0.15452339 0.18587450 0.23819210 0.15109449 0.18432915 0.15763300 0.16004214 0.14841201 0.13771384 0.11580682 0.15992910 0.15083782 0.72795395 0.80010937 0.81962851 0.81957695 0.79340324 0.80746451 0.88161643 0.77400180 0.76080213 0.80411551 0.75954869 0.81462261 0.78524403 0.78280883 0.83028568 0.80591469 0.80173244 0.79602107 0.82737904 0.73406180 0.79501667 0.78305878 0.74220088 0.79732787 0.73704010 0.79667411 0.79806329 0.75746274 0.79601350 0.81875274 0.83849204 0.79253399 0.76423943 0.73112289 0.75552231 0.80037643 0.75723186 0.73541768 0.63099239 0.76044388 0.75986548 0.82172867 0.77002221 0.79888117 0.82316925 0.80799106 0.77379928 0.77847107 0.73970022 0.83333560 -1.14457765 -1.16139469 -1.15625224 -1.03576672 -1.21011080 -1.18288295 -1.13887264 -1.17111519 -1.20561709 -1.22550114 -1.07118482 -1.16566095 -1.25387230 -1.10978845 -1.15797857 -1.09735411 -1.18280188 -1.05388437 -1.16569932 -1.16748143 -1.06041817 -1.18413603 -1.15533720 -0.98303542 -1.13854014 -1.11737821 -1.24486946 -1.15925180 -1.01558027 -1.50273659 -1.18257340 -1.17985070 -1.35197262 -1.11048412 -1.16087831 -1.17206207 -1.25846763 -1.14317609 -1.23006334 -1.13196670 -1.05281800 -1.15156575 -1.21151121 -1.00975057 -1.23442101 -1.17997532 -1.19590683 -0.85536761 -1.12973977 -1.15328464 
-1.21056115 -1.00775549 -1.01395075 -0.98130478 -0.93909249 -1.00585594 -0.98041599 -0.90166827 -0.91753990 -1.07650875 -0.99212744 -1.03321280 -0.87742608 -1.03015131 -1.05809080 -1.21380809 -1.06266884 -1.13968670 -1.11757203 -1.06121167 -1.01862308 -1.06731161 -1.10752066 -0.97542104 -1.04610190 -0.97778575 -1.05111479 -1.02153312 -1.01140459 -0.87629184 -1.04439922 -1.14282619 -0.99323853 -1.14808700 -0.99071448 -1.18505907 -0.99870275 -1.02545328 -1.07042109 -0.99619080 -1.02317669 -1.13492180 -1.04303023 -1.06198495 -1.03297917 -0.99811181 -0.92640901 -0.81704340 -1.02952813 -1.05238602 0.61180182 0.79458857 0.71581227 0.75761223 0.83981372 0.68839049 0.74209031 0.85607053 0.43464828 0.79150712 0.78277021 0.76846979 0.57380395 0.83379126 0.75785247 0.70281912 0.83434613 0.88078485 0.78323285 0.81720733 0.68420611 0.80521567 0.94812761 0.81375405 0.77834288 0.71872240 0.86687395 0.73604431 0.74133681 0.71833862 0.75335198 0.78925304 0.75532466 0.78582253 0.64857089 0.73971625 0.82369771 0.79495849 0.81393638 0.85655730 0.69606531 0.76670955 0.73747146 0.69872447 0.81172687 0.77176817 0.74404662 0.80863331 0.65739049 0.66489228 0.23866162 0.20666739 0.29708717 0.20076138 0.16310589 0.19261069 0.21610224 0.22239319 0.22253000 0.25424136 0.18182790 0.19258411 0.23287590 0.26199711 0.23076327 0.24848148 0.28188240 0.15722384 0.23499768 0.20391017 0.20378647 0.15223236 0.23627988 0.21935830 0.15798772 0.19583157 0.16054778 0.20817338 0.26660580 0.24841079 0.22053875 0.20414779 0.26216825 0.23926149 0.23386270 0.21060417 0.23564746 0.13580874 0.30256416 0.19468425 0.12404996 0.17870982 0.20459624 0.20437628 0.14046544 0.18469857 0.20598817 0.22299590 0.19434176 0.25597484 0.01152976 -0.05685199 0.02954611 0.00239641 0.00060723 -0.01012484 0.07609088 0.11758980 0.10221841 -0.05195044 0.03293474 0.00572067 0.13082437 0.03557895 0.05655920 0.07891008 0.00943154 0.13753337 0.02343570 0.06446857 0.05172974 0.14337849 0.17202476 0.13079916 0.06295480 0.07602750 0.02165228 -0.01562203 0.20645269 -0.02628424 0.16067067 0.15379986 0.09891303 0.08341062 0.05873451 0.09110243 0.18836318 0.00523860 -0.01647321 0.03651176 0.05507112 0.05674841 -0.01056982 0.18794113 0.07689079 0.10068121 0.00428489 -0.15790334 0.07359392 0.07941282 