3.72601636 3.78364360 3.70758558 3.83406791 3.84200399 3.64856468 3.72084064 3.66240715 3.74363618 3.81831363 3.75049403 3.76067099 3.76371164 3.68650988 3.79823283 3.80710841 3.68762874 3.78521453 3.78620380 3.75497816 3.69666268 3.83205575 3.82516648 3.73833203 3.71345196 3.61635408 3.76226580 3.71173633 3.71607773 3.75034910 3.68444147 3.63744469 3.69430273 3.70092840 3.77472488 3.72048534 3.72299519 3.72536957 3.87006019 3.79474919 3.72986259 3.75410190 3.69131033 3.82714723 3.75994421 3.74090784 3.78535714 3.76344105 3.70275881 3.70426815 -1.35940787 -1.25546476 -1.42964494 -1.33927302 -1.30813175 -1.20593021 -1.37237884 -1.27491311 -1.24078291 -1.10272761 -1.32524314 -1.30052188 -1.38991425 -1.35059940 -1.23279593 -1.37936161 -1.34609360 -1.25941168 -1.33509091 -1.39454096 -1.38755995 -1.39059607 -1.59083499 -1.30962698 -1.37717455 -1.25739681 -1.38642646 -1.47174015 -1.52704920 -1.28183186 -1.32007946 -1.28535309 -1.33370421 -1.19036076 -1.36340187 -1.22646564 -1.40980613 -1.31357136 -1.32983942 -1.29564185 -1.23081294 -1.35156829 -1.31544178 -1.42511300 -1.29727686 -1.31708116 -1.27441962 -1.22856343 -1.33267417 -1.28680074 -2.57483128 -2.53537872 -2.46673765 -2.53342100 -2.49639898 -2.53578443 -2.65648062 -2.46869219 -2.44976185 -2.55719681 -2.43977070 -2.57460766 -2.58370850 -2.49835839 -2.57149346 -2.55410081 -2.50112614 -2.45564461 -2.55857158 -2.47003636 -2.54595234 -2.55334489 -2.59732327 -2.57825209 -2.56200760 -2.52013870 -2.65466972 -2.46028965 -2.39218993 -2.53353659 -2.59888466 -2.48643415 -2.50754093 -2.62255174 -2.58673976 -2.62884487 -2.51242880 -2.58726370 -2.38665430 -2.54382384 -2.47938499 -2.55273600 -2.54405220 -2.46301031 -2.43170530 -2.47978788 -2.49575656 -2.49385660 -2.65251309 -2.59885573 0.12526921 0.19257457 0.20962494 0.16336906 -0.01708893 0.14481495 0.09587399 0.07061063 0.14320609 0.05894535 0.14012942 0.14246212 0.09964529 0.09399942 0.04758397 0.18060144 0.10987202 0.09895764 0.16895189 0.09702025 0.12399145 0.14580105 0.24290740 0.13378852 0.11470771 0.20002689 -0.01783726 0.37808098 -0.05101855 0.02524636 -0.01290473 0.10191403 0.22787305 0.21522862 0.05437069 0.04211285 0.14011515 0.07424740 0.19719477 0.08805420 0.11891437 0.13110764 0.14512283 0.07912761 0.10761240 0.08652353 0.10682187 -0.00120191 -0.01256654 0.07640186 
0.99715031 1.07842799 0.89780650 1.04893272 1.04961382 0.99536066 1.09566866 1.04645339 0.99709155 1.09087684 1.07577040 1.03057640 1.03050810 1.03945968 1.02584306 1.11389525 0.99941246 0.93652477 1.00351040 0.98883632 1.14359882 0.98121909 1.01286356 1.04314057 1.07709797 0.97306837 0.98395836 1.11189374 0.98856193 1.06706467 1.05001711 1.01737183 0.99200645 1.06368357 1.09558878 1.04136634 1.13339410 1.10807119 1.09521097 1.06583463 1.00821066 1.02948025 1.02988614 0.98674327 0.97791036 1.01808459 0.99668208 0.96442503 1.01457171 0.99585129 0.30137667 0.13876783 0.32840461 0.20091978 0.16767528 0.01756860 0.18646672 0.20414494 0.17118271 0.25096001 0.15038522 0.16118914 0.27808461 0.15056303 0.21780304 0.28361288 0.24057827 0.26799739 0.29714191 0.16441861 0.20673201 0.19971170 0.33600087 0.20784117 0.20608423 0.13957244 0.18317268 0.22202381 0.02760589 0.20619536 0.20134945 0.15944695 0.18368244 0.17365133 0.08805192 0.21299281 0.08809033 0.15532788 0.30431836 0.18386297 0.18326781 0.28429403 0.19028029 0.21579551 0.29892135 0.21599608 0.29008627 0.13092614 0.21410671 0.20641757 1.36025739 1.22912136 1.31558169 1.22796610 1.29694604 1.27426003 1.34192659 1.31729031 1.30471662 1.32491061 1.27716121 1.30611282 1.38625816 1.27209012 1.25500687 1.41320589 1.28627978 1.23361410 1.33409409 1.36161799 1.40994514 1.31880900 1.36043621 1.28159241 1.21074595 1.35879375 1.37068185 1.30863479 1.46991268 1.36535702 1.22781002 1.25811641 1.33475097 1.34422222 1.26628309 1.19247729 1.24113984 1.39306989 1.34502133 1.25736626 1.26850348 1.32336239 1.33409446 1.33609118 1.37521203 1.41244867 1.25132112 1.13713341 1.32300347 1.21954325 -2.63624118 -2.60048763 -2.43640662 -2.69685719 -2.73965543 -2.49457336 -2.50553562 -2.51248116 -2.59377791 -2.29088145 -2.68975448 -2.48199158 -2.57847949 -2.45532304 -2.48958768 -2.31990149 -2.51599226 -2.45032700 -2.64423255 -2.60012677 -2.54363740 -2.51630406 -2.47143396 -2.55086848 -2.53512492 -2.53068223 -2.42703328 -2.60030762 -2.53424551 -2.52460844 -2.62172702 -2.58166265 -2.60997147 -2.49393124 -2.52875456 -2.48218251 -2.57627181 -2.39950024 -2.40072977 -2.56347242 -2.52119014 -2.57343724 -2.54884838 -2.59246389 -2.52556725 -2.77768606 -2.64994466 -2.49386954 -2.62208855 -2.58776246 
0.03156282 0.03430352 0.06775481 0.08973235 0.15636068 0.04838371 -0.00195618 -0.00176860 0.00736243 -0.02312478 -0.03477871 0.07766515 0.00361232 0.04579144 -0.03022991 0.11039775 0.05506348 0.08874507 0.09706061 -0.02636964 0.08986562 -0.02511891 0.01211198 0.14832437 -0.06548909 0.08726916 0.03025675 0.04800644 0.04319178 0.11270962 0.07359577 0.03537007 -0.00454522 0.03229288 0.09781236 0.03229980 0.13183334 -0.04868567 -0.01659149 -0.00005350 0.37784611 0.09759270 -0.00996917 -0.06797036 0.06172537 0.06948531 0.06043116 0.00325083 -0.01084299 0.10134558 -0.55037279 -0.59821990 -0.60599954 -0.55761886 -0.57358976 -0.56690250 -0.67405218 -0.66729572 -0.62454298 -0.57180314 -0.58087628 -0.56564536 -0.72423909 -0.60222102 -0.68090563 -0.59668777 -0.65797521 -0.60207823 -0.69135922 -0.59037856 -0.67138246 -0.63252710 -0.58400600 -0.62244471 -0.52402581 -0.51746315 -0.70809028 -0.67970998 -0.63178224 -0.60576121 -0.63325573 -0.66356256 -0.62723425 -0.66046550 -0.68265469 -0.54069326 -0.42679080 -0.55377182 -0.75750441 -0.60018248 -0.69649204 -0.66651254 -0.67046734 -0.69282960 -0.78504988 -0.61633391 -0.71910712 -0.53408024 -0.64477457 -0.72538099 0.42095543 0.44897747 0.30303927 0.43501071 0.34475683 0.43605112 0.47480900 0.25235289 0.44091874 0.40669574 0.43420591 0.38422368 0.27301633 0.41221804 0.26032438 0.56698125 0.27758351 0.35356170 0.38011951 0.51004924 0.39578616 0.43238673 0.49234873 0.39036689 0.41286019 0.36167928 0.41695063 0.47376240 0.32544701 0.45590946 0.40728933 0.37306413 0.46094568 0.48202497 0.39112752 0.28041343 0.31807680 0.43742280 0.41754467 0.63033813 0.43471152 0.41390672 0.40721503 0.45017617 0.42929205 0.39011488 0.31589845 0.40590648 0.33702002 0.46309312 0.20210034 0.13224274 0.08973144 0.13536074 0.14293701 0.29893027 0.19191298 0.10619827 0.24020459 0.26839165 0.16161801 0.23477956 0.18760982 0.14044346 0.20711244 0.27231380 0.11106545 0.14074809 0.14722883 0.26602578 0.13359208 0.29470915 0.35597218 0.05161864 0.19003129 0.19691828 0.05874718 0.05533738 0.08520195 0.26332076 0.20573008 0.06800801 0.22290808 0.29886259 0.14172913 0.22152458 0.13663689 0.12056092 0.15890923 0.16159728 0.23194381 0.14158216 0.10533296 0.16944010 0.13101988 0.16048129 0.22226900 0.20592826 0.20839124 0.16999169 